digraph Tree {
node [shape=box, style="filled, rounded", color="black", fontname=helvetica] ;
edge [fontname=helvetica] ;
0 [label="petal width (cm) <= 0.7\ngini = 0.67\nsamples = 97\nvalue = [47, 51, 52]\nclass = virginica", fillcolor="#fefdff"] ;
1 [label="gini = 0.0\nsamples = 32\nvalue = [47, 0, 0]\nclass = setosa", fillcolor="#e58139"] ;
0 -> 1 [labeldistance=2.5, labelangle=45, headlabel="True"] ;
2 [label="petal length (cm) <= 4.75\ngini = 0.5\nsamples = 65\nvalue = [0, 51, 52]\nclass = virginica", fillcolor="#fdfbfe"] ;
0 -> 2 [labeldistance=2.5, labelangle=-45, headlabel="False"] ;
3 [label="sepal length (cm) <= 4.95\ngini = 0.04\nsamples = 31\nvalue = [0, 45, 1]\nclass = versicolor", fillcolor="#3de684"] ;
2 -> 3 ;
4 [label="gini = 0.0\nsamples = 1\nvalue = [0, 0, 1]\nclass = virginica", fillcolor="#8139e5"] ;
3 -> 4 ;
5 [label="gini = 0.0\nsamples = 30\nvalue = [0, 45, 0]\nclass = versicolor", fillcolor="#39e581"] ;
3 -> 5 ;
6 [label="petal width (cm) <= 1.75\ngini = 0.19\nsamples = 34\nvalue = [0, 6, 51]\nclass = virginica", fillcolor="#9050e8"] ;
2 -> 6 ;
7 [label="petal width (cm) <= 1.45\ngini = 0.38\nsamples = 5\nvalue = [0, 6, 2]\nclass = versicolor", fillcolor="#7beeab"] ;
6 -> 7 ;
8 [label="gini = 0.0\nsamples = 1\nvalue = [0, 0, 1]\nclass = virginica", fillcolor="#8139e5"] ;
7 -> 8 ;
9 [label="petal length (cm) <= 5.4\ngini = 0.24\nsamples = 4\nvalue = [0, 6, 1]\nclass = versicolor", fillcolor="#5ae996"] ;
7 -> 9 ;
10 [label="gini = 0.0\nsamples = 3\nvalue = [0, 6, 0]\nclass = versicolor", fillcolor="#39e581"] ;
9 -> 10 ;
11 [label="gini = 0.0\nsamples = 1\nvalue = [0, 0, 1]\nclass = virginica", fillcolor="#8139e5"] ;
9 -> 11 ;
12 [label="gini = 0.0\nsamples = 29\nvalue = [0, 0, 49]\nclass = virginica", fillcolor="#8139e5"] ;
6 -> 12 ;
}