digraph Tree {
node [shape=box, style="filled, rounded", color="black", fontname=helvetica] ;
edge [fontname=helvetica] ;
0 [label="petal width (cm) <= 0.7\ngini = 0.67\nsamples = 98\nvalue = [49, 47, 54]\nclass = virginica", fillcolor="#f9f5fe"] ;
1 [label="gini = 0.0\nsamples = 33\nvalue = [49, 0, 0]\nclass = setosa", fillcolor="#e58139"] ;
0 -> 1 [labeldistance=2.5, labelangle=45, headlabel="True"] ;
2 [label="petal width (cm) <= 1.75\ngini = 0.5\nsamples = 65\nvalue = [0, 47, 54]\nclass = virginica", fillcolor="#efe5fc"] ;
0 -> 2 [labeldistance=2.5, labelangle=-45, headlabel="False"] ;
3 [label="sepal length (cm) <= 4.95\ngini = 0.11\nsamples = 37\nvalue = [0, 47, 3]\nclass = versicolor", fillcolor="#46e789"] ;
2 -> 3 ;
4 [label="gini = 0.0\nsamples = 1\nvalue = [0, 0, 1]\nclass = virginica", fillcolor="#8139e5"] ;
3 -> 4 ;
5 [label="sepal width (cm) <= 2.3\ngini = 0.08\nsamples = 36\nvalue = [0, 47, 2]\nclass = versicolor", fillcolor="#41e686"] ;
3 -> 5 ;
6 [label="petal width (cm) <= 1.25\ngini = 0.38\nsamples = 4\nvalue = [0, 3, 1]\nclass = versicolor", fillcolor="#7beeab"] ;
5 -> 6 ;
7 [label="gini = 0.0\nsamples = 2\nvalue = [0, 2, 0]\nclass = versicolor", fillcolor="#39e581"] ;
6 -> 7 ;
8 [label="sepal length (cm) <= 6.1\ngini = 0.5\nsamples = 2\nvalue = [0, 1, 1]\nclass = versicolor", fillcolor="#ffffff"] ;
6 -> 8 ;
9 [label="gini = 0.0\nsamples = 1\nvalue = [0, 0, 1]\nclass = virginica", fillcolor="#8139e5"] ;
8 -> 9 ;
10 [label="gini = 0.0\nsamples = 1\nvalue = [0, 1, 0]\nclass = versicolor", fillcolor="#39e581"] ;
8 -> 10 ;
11 [label="sepal length (cm) <= 7.05\ngini = 0.04\nsamples = 32\nvalue = [0, 44, 1]\nclass = versicolor", fillcolor="#3de684"] ;
5 -> 11 ;
12 [label="gini = 0.0\nsamples = 31\nvalue = [0, 44, 0]\nclass = versicolor", fillcolor="#39e581"] ;
11 -> 12 ;
13 [label="gini = 0.0\nsamples = 1\nvalue = [0, 0, 1]\nclass = virginica", fillcolor="#8139e5"] ;
11 -> 13 ;
14 [label="gini = 0.0\nsamples = 28\nvalue = [0, 0, 51]\nclass = virginica", fillcolor="#8139e5"] ;
2 -> 14 ;
}